digraph Tree {
node [shape=box, fontname="helvetica"] ;
edge [fontname="helvetica"] ;
0 [label="x[10] <= 10.35\ngini = 0.648\nsamples = 1279\nvalue = [8, 42, 546, 496, 172, 15]"] ;
1 [label="x[9] <= 0.585\ngini = 0.527\nsamples = 703\nvalue = [5, 23, 428, 222, 24, 1]"] ;
0 -> 1 [labeldistance=2.5, labelangle=45, headlabel="True"] ;
2 [label="x[10] <= 9.075\ngini = 0.42\nsamples = 331\nvalue = [3, 15, 242, 69, 2, 0]"] ;
1 -> 2 ;
3 [label="x[6] <= 71.0\ngini = 0.587\nsamples = 15\nvalue = [0, 2, 5, 8, 0, 0]"] ;
2 -> 3 ;
4 [label="x[7] <= 0.996\ngini = 0.43\nsamples = 11\nvalue = [0, 2, 1, 8, 0, 0]"] ;
3 -> 4 ;
5 [label="gini = 0.0\nsamples = 2\nvalue = [0, 2, 0, 0, 0, 0]"] ;
4 -> 5 ;
6 [label="gini = 0.198\nsamples = 9\nvalue = [0, 0, 1, 8, 0, 0]"] ;
4 -> 6 ;
7 [label="gini = 0.0\nsamples = 4\nvalue = [0, 0, 4, 0, 0, 0]"] ;
3 -> 7 ;
8 [label="x[10] <= 9.533\ngini = 0.398\nsamples = 316\nvalue = [3, 13, 237, 61, 2, 0]"] ;
2 -> 8 ;
9 [label="x[4] <= 0.08\ngini = 0.269\nsamples = 161\nvalue = [0, 3, 136, 21, 1, 0]"] ;
8 -> 9 ;
10 [label="gini = 0.392\nsamples = 71\nvalue = [0, 1, 53, 16, 1, 0]"] ;
9 -> 10 ;
11 [label="gini = 0.146\nsamples = 90\nvalue = [0, 2, 83, 5, 0, 0]"] ;
9 -> 11 ;
12 [label="x[1] <= 0.54\ngini = 0.504\nsamples = 155\nvalue = [3, 10, 101, 40, 1, 0]"] ;
8 -> 12 ;
13 [label="gini = 0.564\nsamples = 41\nvalue = [0, 3, 20, 18, 0, 0]"] ;
12 -> 13 ;
14 [label="gini = 0.453\nsamples = 114\nvalue = [3, 7, 81, 22, 1, 0]"] ;
12 -> 14 ;
15 [label="x[6] <= 86.5\ngini = 0.577\nsamples = 372\nvalue = [2, 8, 186, 153, 22, 1]"] ;
1 -> 15 ;
16 [label="x[1] <= 0.365\ngini = 0.59\nsamples = 316\nvalue = [2, 7, 137, 147, 22, 1]"] ;
15 -> 16 ;
17 [label="x[3] <= 2.15\ngini = 0.511\nsamples = 59\nvalue = [0, 0, 10, 39, 9, 1]"] ;
16 -> 17 ;
18 [label="gini = 0.354\nsamples = 33\nvalue = [0, 0, 1, 26, 5, 1]"] ;
17 -> 18 ;
19 [label="gini = 0.607\nsamples = 26\nvalue = [0, 0, 9, 13, 4, 0]"] ;
17 -> 19 ;
20 [label="x[8] <= 3.54\ngini = 0.576\nsamples = 257\nvalue = [2, 7, 127, 108, 13, 0]"] ;
16 -> 20 ;
21 [label="gini = 0.57\nsamples = 235\nvalue = [1, 4, 112, 105, 13, 0]"] ;
20 -> 21 ;
22 [label="gini = 0.496\nsamples = 22\nvalue = [1, 3, 15, 3, 0, 0]"] ;
20 -> 22 ;
23 [label="x[8] <= 2.935\ngini = 0.223\nsamples = 56\nvalue = [0, 1, 49, 6, 0, 0]"] ;
15 -> 23 ;
24 [label="x[3] <= 1.95\ngini = 0.375\nsamples = 4\nvalue = [0, 0, 1, 3, 0, 0]"] ;
23 -> 24 ;
25 [label="gini = 0.0\nsamples = 2\nvalue = [0, 0, 0, 2, 0, 0]"] ;
24 -> 25 ;
26 [label="gini = 0.5\nsamples = 2\nvalue = [0, 0, 1, 1, 0, 0]"] ;
24 -> 26 ;
27 [label="x[7] <= 1.003\ngini = 0.144\nsamples = 52\nvalue = [0, 1, 48, 3, 0, 0]"] ;
23 -> 27 ;
28 [label="gini = 0.078\nsamples = 50\nvalue = [0, 1, 48, 1, 0, 0]"] ;
27 -> 28 ;
29 [label="gini = 0.0\nsamples = 2\nvalue = [0, 0, 0, 2, 0, 0]"] ;
27 -> 29 ;
30 [label="x[1] <= 0.345\ngini = 0.664\nsamples = 576\nvalue = [3, 19, 118, 274, 148, 14]"] ;
0 -> 30 [labeldistance=2.5, labelangle=-45, headlabel="False"] ;
31 [label="x[3] <= 2.025\ngini = 0.581\nsamples = 124\nvalue = [0, 0, 14, 42, 67, 1]"] ;
30 -> 31 ;
32 [label="x[0] <= 8.3\ngini = 0.614\nsamples = 56\nvalue = [0, 0, 7, 26, 22, 1]"] ;
31 -> 32 ;
33 [label="x[7] <= 0.994\ngini = 0.449\nsamples = 21\nvalue = [0, 0, 3, 15, 3, 0]"] ;
32 -> 33 ;
34 [label="gini = 0.0\nsamples = 9\nvalue = [0, 0, 0, 9, 0, 0]"] ;
33 -> 34 ;
35 [label="gini = 0.625\nsamples = 12\nvalue = [0, 0, 3, 6, 3, 0]"] ;
33 -> 35 ;
36 [label="x[2] <= 0.475\ngini = 0.593\nsamples = 35\nvalue = [0, 0, 4, 11, 19, 1]"] ;
32 -> 36 ;
37 [label="gini = 0.403\nsamples = 24\nvalue = [0, 0, 2, 4, 18, 0]"] ;
36 -> 37 ;
38 [label="gini = 0.545\nsamples = 11\nvalue = [0, 0, 2, 7, 1, 1]"] ;
36 -> 38 ;
39 [label="x[1] <= 0.225\ngini = 0.496\nsamples = 68\nvalue = [0, 0, 7, 16, 45, 0]"] ;
31 -> 39 ;
40 [label="x[4] <= 0.067\ngini = 0.32\nsamples = 5\nvalue = [0, 0, 1, 4, 0, 0]"] ;
39 -> 40 ;
41 [label="gini = 0.5\nsamples = 2\nvalue = [0, 0, 1, 1, 0, 0]"] ;
40 -> 41 ;
42 [label="gini = 0.0\nsamples = 3\nvalue = [0, 0, 0, 3, 0, 0]"] ;
40 -> 42 ;
43 [label="x[7] <= 0.995\ngini = 0.444\nsamples = 63\nvalue = [0, 0, 6, 12, 45, 0]"] ;
39 -> 43 ;
44 [label="gini = 0.095\nsamples = 20\nvalue = [0, 0, 0, 1, 19, 0]"] ;
43 -> 44 ;
45 [label="gini = 0.549\nsamples = 43\nvalue = [0, 0, 6, 11, 26, 0]"] ;
43 -> 45 ;
46 [label="x[9] <= 0.585\ngini = 0.649\nsamples = 452\nvalue = [3, 19, 104, 232, 81, 13]"] ;
30 -> 46 ;
47 [label="x[10] <= 11.45\ngini = 0.649\nsamples = 133\nvalue = [3, 14, 52, 57, 7, 0]"] ;
46 -> 47 ;
48 [label="x[5] <= 6.5\ngini = 0.648\nsamples = 91\nvalue = [3, 12, 43, 30, 3, 0]"] ;
47 -> 48 ;
49 [label="gini = 0.53\nsamples = 29\nvalue = [3, 4, 19, 3, 0, 0]"] ;
48 -> 49 ;
50 [label="gini = 0.642\nsamples = 62\nvalue = [0, 8, 24, 27, 3, 0]"] ;
48 -> 50 ;
51 [label="x[1] <= 0.57\ngini = 0.529\nsamples = 42\nvalue = [0, 2, 9, 27, 4, 0]"] ;
47 -> 51 ;
52 [label="gini = 0.277\nsamples = 19\nvalue = [0, 1, 0, 16, 2, 0]"] ;
51 -> 52 ;
53 [label="gini = 0.609\nsamples = 23\nvalue = [0, 1, 9, 11, 2, 0]"] ;
51 -> 53 ;
54 [label="x[10] <= 11.55\ngini = 0.617\nsamples = 319\nvalue = [0, 5, 52, 175, 74, 13]"] ;
46 -> 54 ;
55 [label="x[6] <= 105.5\ngini = 0.581\nsamples = 214\nvalue = [0, 5, 48, 126, 31, 4]"] ;
54 -> 55 ;
56 [label="gini = 0.562\nsamples = 205\nvalue = [0, 5, 39, 126, 31, 4]"] ;
55 -> 56 ;
57 [label="gini = 0.0\nsamples = 9\nvalue = [0, 0, 9, 0, 0, 0]"] ;
55 -> 57 ;
58 [label="x[8] <= 3.245\ngini = 0.606\nsamples = 105\nvalue = [0, 0, 4, 49, 43, 9]"] ;
54 -> 58 ;
59 [label="gini = 0.522\nsamples = 31\nvalue = [0, 0, 1, 7, 20, 3]"] ;
58 -> 59 ;
60 [label="gini = 0.573\nsamples = 74\nvalue = [0, 0, 3, 42, 23, 6]"] ;
58 -> 60 ;
}
