digraph Tree {
node [shape=box, fontname="helvetica"] ;
edge [fontname="helvetica"] ;
0 [label="x[8] <= 19.572\nentropy = 0.936\nsamples = 13313\nvalue = [8627, 4686]"] ;
1 [label="x[0] <= 117.903\nentropy = 0.613\nsamples = 6989\nvalue = [5931, 1058]"] ;
0 -> 1 [labeldistance=2.5, labelangle=45, headlabel="True"] ;
2 [label="x[6] <= -67.643\nentropy = 0.55\nsamples = 6731\nvalue = [5875, 856]"] ;
1 -> 2 ;
3 [label="x[1] <= 37.332\nentropy = 0.779\nsamples = 91\nvalue = [21, 70]"] ;
2 -> 3 ;
4 [label="x[8] <= 2.547\nentropy = 0.993\nsamples = 42\nvalue = [19, 23]"] ;
3 -> 4 ;
5 [label="entropy = 0.0\nsamples = 7\nvalue = [7, 0]"] ;
4 -> 5 ;
6 [label="entropy = 0.928\nsamples = 35\nvalue = [12, 23]"] ;
4 -> 6 ;
7 [label="x[6] <= -69.573\nentropy = 0.246\nsamples = 49\nvalue = [2, 47]"] ;
3 -> 7 ;
8 [label="entropy = 0.146\nsamples = 48\nvalue = [1, 47]"] ;
7 -> 8 ;
9 [label="entropy = 0.0\nsamples = 1\nvalue = [1, 0]"] ;
7 -> 9 ;
10 [label="x[3] <= 0.388\nentropy = 0.525\nsamples = 6640\nvalue = [5854, 786]"] ;
2 -> 10 ;
11 [label="x[8] <= 6.418\nentropy = 0.394\nsamples = 4451\nvalue = [4105, 346]"] ;
10 -> 11 ;
12 [label="entropy = 0.245\nsamples = 2709\nvalue = [2599, 110]"] ;
11 -> 12 ;
13 [label="entropy = 0.572\nsamples = 1742\nvalue = [1506, 236]"] ;
11 -> 13 ;
14 [label="x[2] <= 2.619\nentropy = 0.724\nsamples = 2189\nvalue = [1749, 440]"] ;
10 -> 14 ;
15 [label="entropy = 0.631\nsamples = 1689\nvalue = [1421, 268]"] ;
14 -> 15 ;
16 [label="entropy = 0.929\nsamples = 500\nvalue = [328, 172]"] ;
14 -> 16 ;
17 [label="x[6] <= -125.545\nentropy = 0.755\nsamples = 258\nvalue = [56, 202]"] ;
1 -> 17 ;
18 [label="entropy = 0.0\nsamples = 69\nvalue = [0, 69]"] ;
17 -> 18 ;
19 [label="x[8] <= 8.624\nentropy = 0.877\nsamples = 189\nvalue = [56, 133]"] ;
17 -> 19 ;
20 [label="x[1] <= 37.572\nentropy = 0.992\nsamples = 105\nvalue = [47, 58]"] ;
19 -> 20 ;
21 [label="entropy = 0.944\nsamples = 58\nvalue = [37, 21]"] ;
20 -> 21 ;
22 [label="entropy = 0.747\nsamples = 47\nvalue = [10, 37]"] ;
20 -> 22 ;
23 [label="x[6] <= -62.534\nentropy = 0.491\nsamples = 84\nvalue = [9, 75]"] ;
19 -> 23 ;
24 [label="entropy = 0.0\nsamples = 29\nvalue = [0, 29]"] ;
23 -> 24 ;
25 [label="entropy = 0.643\nsamples = 55\nvalue = [9, 46]"] ;
23 -> 25 ;
26 [label="x[0] <= 46.589\nentropy = 0.984\nsamples = 6324\nvalue = [2696, 3628]"] ;
0 -> 26 [labeldistance=2.5, labelangle=-45, headlabel="False"] ;
27 [label="x[2] <= 2.441\nentropy = 0.981\nsamples = 4383\nvalue = [2542, 1841]"] ;
26 -> 27 ;
28 [label="x[0] <= 12.31\nentropy = 0.849\nsamples = 1943\nvalue = [1408, 535]"] ;
27 -> 28 ;
29 [label="entropy = 0.0\nsamples = 29\nvalue = [0, 29]"] ;
28 -> 29 ;
30 [label="x[2] <= 2.307\nentropy = 0.833\nsamples = 1914\nvalue = [1408, 506]"] ;
28 -> 30 ;
31 [label="entropy = 0.705\nsamples = 1037\nvalue = [838, 199]"] ;
30 -> 31 ;
32 [label="entropy = 0.934\nsamples = 877\nvalue = [570, 307]"] ;
30 -> 32 ;
33 [label="x[1] <= 11.313\nentropy = 0.996\nsamples = 2440\nvalue = [1134, 1306]"] ;
27 -> 33 ;
34 [label="x[2] <= 2.522\nentropy = 0.402\nsamples = 526\nvalue = [42, 484]"] ;
33 -> 34 ;
35 [label="entropy = 0.769\nsamples = 169\nvalue = [38, 131]"] ;
34 -> 35 ;
36 [label="entropy = 0.089\nsamples = 357\nvalue = [4, 353]"] ;
34 -> 36 ;
37 [label="x[8] <= 37.608\nentropy = 0.986\nsamples = 1914\nvalue = [1092, 822]"] ;
33 -> 37 ;
38 [label="entropy = 0.779\nsamples = 815\nvalue = [627, 188]"] ;
37 -> 38 ;
39 [label="entropy = 0.983\nsamples = 1099\nvalue = [465, 634]"] ;
37 -> 39 ;
40 [label="x[0] <= 71.452\nentropy = 0.4\nsamples = 1941\nvalue = [154, 1787]"] ;
26 -> 40 ;
41 [label="x[1] <= 13.617\nentropy = 0.655\nsamples = 575\nvalue = [97, 478]"] ;
40 -> 41 ;
42 [label="x[2] <= 2.436\nentropy = 0.106\nsamples = 143\nvalue = [2, 141]"] ;
41 -> 42 ;
43 [label="entropy = 0.971\nsamples = 5\nvalue = [2, 3]"] ;
42 -> 43 ;
44 [label="entropy = 0.0\nsamples = 138\nvalue = [0, 138]"] ;
42 -> 44 ;
45 [label="x[8] <= 41.285\nentropy = 0.76\nsamples = 432\nvalue = [95, 337]"] ;
41 -> 45 ;
46 [label="entropy = 0.938\nsamples = 192\nvalue = [68, 124]"] ;
45 -> 46 ;
47 [label="entropy = 0.507\nsamples = 240\nvalue = [27, 213]"] ;
45 -> 47 ;
48 [label="x[9] <= 280.867\nentropy = 0.25\nsamples = 1366\nvalue = [57, 1309]"] ;
40 -> 48 ;
49 [label="x[5] <= -51.346\nentropy = 0.329\nsamples = 910\nvalue = [55, 855]"] ;
48 -> 49 ;
50 [label="entropy = 0.176\nsamples = 454\nvalue = [12, 442]"] ;
49 -> 50 ;
51 [label="entropy = 0.451\nsamples = 456\nvalue = [43, 413]"] ;
49 -> 51 ;
52 [label="x[2] <= 4.571\nentropy = 0.041\nsamples = 456\nvalue = [2, 454]"] ;
48 -> 52 ;
53 [label="entropy = 0.023\nsamples = 453\nvalue = [1, 452]"] ;
52 -> 53 ;
54 [label="entropy = 0.918\nsamples = 3\nvalue = [1, 2]"] ;
52 -> 54 ;
}
